digraph Tree {
node [shape=box, style="filled, rounded", color="black", fontname=helvetica] ;
edge [fontname=helvetica] ;
0 [label="expc_at <= 2.5\ngini = 0.46\nsamples = 780\nvalue = [445, 788]\nclass = 0", fillcolor="#399de56f"] ;
1 [label="enq_resume_1 <= 0.5\ngini = 0.42\nsamples = 717\nvalue = [337, 786]\nclass = 0", fillcolor="#399de592"] ;
0 -> 1 [labeldistance=2.5, labelangle=45, headlabel="True"] ;
2 [label="cl_loc_2 <= 0.5\ngini = 0.5\nsamples = 142\nvalue = [114, 117]\nclass = 0", fillcolor="#399de507"] ;
1 -> 2 ;
3 [label="intrvw_typ_2 <= 0.5\ngini = 0.5\nsamples = 95\nvalue = [78, 85]\nclass = 0", fillcolor="#399de515"] ;
2 -> 3 ;
4 [label="intrvw_typ_1 <= 0.5\ngini = 0.49\nsamples = 59\nvalue = [45, 57]\nclass = 0", fillcolor="#399de536"] ;
3 -> 4 ;
5 [label="month_2 <= 0.5\ngini = 0.48\nsamples = 28\nvalue = [29, 19]\nclass = 1", fillcolor="#e5813958"] ;
4 -> 5 ;
6 [label="gini = 0.49\nsamples = 15\nvalue = [14, 10]\nclass = 1", fillcolor="#e5813949"] ;
5 -> 6 ;
7 [label="gini = 0.47\nsamples = 13\nvalue = [15, 9]\nclass = 1", fillcolor="#e5813966"] ;
5 -> 7 ;
8 [label="cl_nam_1 <= 0.5\ngini = 0.42\nsamples = 31\nvalue = [16, 38]\nclass = 0", fillcolor="#399de594"] ;
4 -> 8 ;
9 [label="gini = 0.0\nsamples = 1\nvalue = [1, 0]\nclass = 1", fillcolor="#e58139ff"] ;
8 -> 9 ;
10 [label="gini = 0.41\nsamples = 30\nvalue = [15, 38]\nclass = 0", fillcolor="#399de59a"] ;
8 -> 10 ;
11 [label="married_2 <= 0.5\ngini = 0.5\nsamples = 36\nvalue = [33, 28]\nclass = 1", fillcolor="#e5813927"] ;
3 -> 11 ;
12 [label="day_6 <= 0.5\ngini = 0.46\nsamples = 16\nvalue = [9, 16]\nclass = 0", fillcolor="#399de570"] ;
11 -> 12 ;
13 [label="gini = 0.49\nsamples = 12\nvalue = [9, 12]\nclass = 0", fillcolor="#399de540"] ;
12 -> 13 ;
14 [label="gini = 0.0\nsamples = 4\nvalue = [0, 4]\nclass = 0", fillcolor="#399de5ff"] ;
12 -> 14 ;
15 [label="cand_j_loc_1 <= 0.5\ngini = 0.44\nsamples = 20\nvalue = [24, 12]\nclass = 1", fillcolor="#e581397f"] ;
11 -> 15 ;
16 [label="gini = 0.24\nsamples = 4\nvalue = [6, 1]\nclass = 1", fillcolor="#e58139d4"] ;
15 -> 16 ;
17 [label="gini = 0.47\nsamples = 16\nvalue = [18, 11]\nclass = 1", fillcolor="#e5813963"] ;
15 -> 17 ;
18 [label="intrvw_ven_1 <= 0.5\ngini = 0.5\nsamples = 47\nvalue = [36, 32]\nclass = 1", fillcolor="#e581391c"] ;
2 -> 18 ;
19 [label="intrvw_typ_1 <= 0.5\ngini = 0.5\nsamples = 43\nvalue = [32, 31]\nclass = 1", fillcolor="#e5813908"] ;
18 -> 19 ;
20 [label="married_1 <= 0.5\ngini = 0.46\nsamples = 7\nvalue = [4, 7]\nclass = 0", fillcolor="#399de56d"] ;
19 -> 20 ;
21 [label="gini = 0.38\nsamples = 3\nvalue = [1, 3]\nclass = 0", fillcolor="#399de5aa"] ;
20 -> 21 ;
22 [label="gini = 0.49\nsamples = 4\nvalue = [3, 4]\nclass = 0", fillcolor="#399de540"] ;
20 -> 22 ;
23 [label="enq_num_1 <= 0.5\ngini = 0.5\nsamples = 36\nvalue = [28, 24]\nclass = 1", fillcolor="#e5813924"] ;
19 -> 23 ;
24 [label="gini = 0.5\nsamples = 35\nvalue = [27, 24]\nclass = 1", fillcolor="#e581391c"] ;
23 -> 24 ;
25 [label="gini = 0.0\nsamples = 1\nvalue = [1, 0]\nclass = 1", fillcolor="#e58139ff"] ;
23 -> 25 ;
26 [label="cand_nat_loc_1 <= 0.5\ngini = 0.32\nsamples = 4\nvalue = [4, 1]\nclass = 1", fillcolor="#e58139bf"] ;
18 -> 26 ;
27 [label="gini = 0.0\nsamples = 1\nvalue = [1, 0]\nclass = 1", fillcolor="#e58139ff"] ;
26 -> 27 ;
28 [label="gini = 0.38\nsamples = 3\nvalue = [3, 1]\nclass = 1", fillcolor="#e58139aa"] ;
26 -> 28 ;
29 [label="intrvw_typ_2 <= 0.5\ngini = 0.38\nsamples = 575\nvalue = [223, 669]\nclass = 0", fillcolor="#399de5aa"] ;
1 -> 29 ;
30 [label="expc_at <= 1.5\ngini = 0.41\nsamples = 414\nvalue = [182, 458]\nclass = 0", fillcolor="#399de59a"] ;
29 -> 30 ;
31 [label="day_6 <= 0.5\ngini = 0.4\nsamples = 405\nvalue = [172, 452]\nclass = 0", fillcolor="#399de59e"] ;
30 -> 31 ;
32 [label="cand_cur_loc_2 <= 0.5\ngini = 0.37\nsamples = 233\nvalue = [85, 265]\nclass = 0", fillcolor="#399de5ad"] ;
31 -> 32 ;
33 [label="gini = 0.39\nsamples = 143\nvalue = [58, 160]\nclass = 0", fillcolor="#399de5a3"] ;
32 -> 33 ;
34 [label="gini = 0.33\nsamples = 90\nvalue = [27, 105]\nclass = 0", fillcolor="#399de5bd"] ;
32 -> 34 ;
35 [label="intrvw_ven_1 <= 0.5\ngini = 0.43\nsamples = 172\nvalue = [87, 187]\nclass = 0", fillcolor="#399de588"] ;
31 -> 35 ;
36 [label="gini = 0.5\nsamples = 8\nvalue = [6, 6]\nclass = 1", fillcolor="#e5813900"] ;
35 -> 36 ;
37 [label="gini = 0.43\nsamples = 164\nvalue = [81, 181]\nclass = 0", fillcolor="#399de58d"] ;
35 -> 37 ;
38 [label="cl_nam_1 <= 0.5\ngini = 0.47\nsamples = 9\nvalue = [10, 6]\nclass = 1", fillcolor="#e5813966"] ;
30 -> 38 ;
39 [label="gini = 0.0\nsamples = 2\nvalue = [4, 0]\nclass = 1", fillcolor="#e58139ff"] ;
38 -> 39 ;
40 [label="married_1 <= 0.5\ngini = 0.5\nsamples = 7\nvalue = [6, 6]\nclass = 1", fillcolor="#e5813900"] ;
38 -> 40 ;
41 [label="gini = 0.32\nsamples = 2\nvalue = [1, 4]\nclass = 0", fillcolor="#399de5bf"] ;
40 -> 41 ;
42 [label="gini = 0.41\nsamples = 5\nvalue = [5, 2]\nclass = 1", fillcolor="#e5813999"] ;
40 -> 42 ;
43 [label="expc_at <= 1.5\ngini = 0.27\nsamples = 161\nvalue = [41, 211]\nclass = 0", fillcolor="#399de5cd"] ;
29 -> 43 ;
44 [label="intrvw_ven_1 <= 0.5\ngini = 0.24\nsamples = 151\nvalue = [34, 205]\nclass = 0", fillcolor="#399de5d5"] ;
43 -> 44 ;
45 [label="enq_perm_1 <= 0.5\ngini = 0.16\nsamples = 60\nvalue = [8, 86]\nclass = 0", fillcolor="#399de5e7"] ;
44 -> 45 ;
46 [label="gini = 0.0\nsamples = 1\nvalue = [0, 2]\nclass = 0", fillcolor="#399de5ff"] ;
45 -> 46 ;
47 [label="gini = 0.16\nsamples = 59\nvalue = [8, 84]\nclass = 0", fillcolor="#399de5e7"] ;
45 -> 47 ;
48 [label="day_6 <= 0.5\ngini = 0.29\nsamples = 91\nvalue = [26, 119]\nclass = 0", fillcolor="#399de5c7"] ;
44 -> 48 ;
49 [label="gini = 0.35\nsamples = 52\nvalue = [18, 61]\nclass = 0", fillcolor="#399de5b4"] ;
48 -> 49 ;
50 [label="gini = 0.21\nsamples = 39\nvalue = [8, 58]\nclass = 0", fillcolor="#399de5dc"] ;
48 -> 50 ;
51 [label="cand_j_loc_1 <= 0.5\ngini = 0.5\nsamples = 10\nvalue = [7, 6]\nclass = 1", fillcolor="#e5813924"] ;
43 -> 51 ;
52 [label="day_6 <= 0.5\ngini = 0.44\nsamples = 3\nvalue = [2, 1]\nclass = 1", fillcolor="#e581397f"] ;
51 -> 52 ;
53 [label="gini = 0.0\nsamples = 2\nvalue = [2, 0]\nclass = 1", fillcolor="#e58139ff"] ;
52 -> 53 ;
54 [label="gini = 0.0\nsamples = 1\nvalue = [0, 1]\nclass = 0", fillcolor="#399de5ff"] ;
52 -> 54 ;
55 [label="enq_num_1 <= 0.5\ngini = 0.5\nsamples = 7\nvalue = [5, 5]\nclass = 1", fillcolor="#e5813900"] ;
51 -> 55 ;
56 [label="gini = 0.38\nsamples = 4\nvalue = [3, 1]\nclass = 1", fillcolor="#e58139aa"] ;
55 -> 56 ;
57 [label="gini = 0.44\nsamples = 3\nvalue = [2, 4]\nclass = 0", fillcolor="#399de57f"] ;
55 -> 57 ;
58 [label="enq_resume_1 <= 0.5\ngini = 0.04\nsamples = 63\nvalue = [108, 2]\nclass = 1", fillcolor="#e58139fa"] ;
0 -> 58 [labeldistance=2.5, labelangle=-45, headlabel="False"] ;
59 [label="gini = 0.0\nsamples = 47\nvalue = [83, 0]\nclass = 1", fillcolor="#e58139ff"] ;
58 -> 59 ;
60 [label="enq_perm_1 <= 0.5\ngini = 0.14\nsamples = 16\nvalue = [25, 2]\nclass = 1", fillcolor="#e58139eb"] ;
58 -> 60 ;
61 [label="gini = 0.0\nsamples = 12\nvalue = [18, 0]\nclass = 1", fillcolor="#e58139ff"] ;
60 -> 61 ;
62 [label="married_1 <= 0.5\ngini = 0.35\nsamples = 4\nvalue = [7, 2]\nclass = 1", fillcolor="#e58139b6"] ;
60 -> 62 ;
63 [label="enq_call_letter_1 <= 0.5\ngini = 0.38\nsamples = 3\nvalue = [6, 2]\nclass = 1", fillcolor="#e58139aa"] ;
62 -> 63 ;
64 [label="gini = 0.41\nsamples = 2\nvalue = [5, 2]\nclass = 1", fillcolor="#e5813999"] ;
63 -> 64 ;
65 [label="gini = 0.0\nsamples = 1\nvalue = [1, 0]\nclass = 1", fillcolor="#e58139ff"] ;
63 -> 65 ;
66 [label="gini = 0.0\nsamples = 1\nvalue = [1, 0]\nclass = 1", fillcolor="#e58139ff"] ;
62 -> 66 ;
}