digraph Tree {
node [shape=box, style="filled, rounded", color="black", fontname=helvetica] ;
edge [fontname=helvetica] ;
0 [label="expc_at <= 2.5\ngini = 0.47\nsamples = 775\nvalue = [779, 454]\nclass = 1", fillcolor="#e581396a"] ;
1 [label="enq_ven <= 1.5\ngini = 0.43\nsamples = 720\nvalue = [778, 360]\nclass = 1", fillcolor="#e5813989"] ;
0 -> 1 [labeldistance=2.5, labelangle=45, headlabel="True"] ;
2 [label="day <= 2.5\ngini = 0.4\nsamples = 579\nvalue = [664, 254]\nclass = 1", fillcolor="#e581399d"] ;
1 -> 2 ;
3 [label="enq_num <= 2.0\ngini = 0.24\nsamples = 62\nvalue = [82, 13]\nclass = 1", fillcolor="#e58139d7"] ;
2 -> 3 ;
4 [label="cl_loc <= 4.5\ngini = 0.22\nsamples = 61\nvalue = [82, 12]\nclass = 1", fillcolor="#e58139da"] ;
3 -> 4 ;
5 [label="intrvw_typ <= 2.5\ngini = 0.25\nsamples = 49\nvalue = [64, 11]\nclass = 1", fillcolor="#e58139d3"] ;
4 -> 5 ;
6 [label="gini = 0.19\nsamples = 42\nvalue = [60, 7]\nclass = 1", fillcolor="#e58139e1"] ;
5 -> 6 ;
7 [label="gini = 0.5\nsamples = 7\nvalue = [4, 4]\nclass = 1", fillcolor="#e5813900"] ;
5 -> 7 ;
8 [label="cand_nat_loc <= 16.5\ngini = 0.1\nsamples = 12\nvalue = [18, 1]\nclass = 1", fillcolor="#e58139f1"] ;
4 -> 8 ;
9 [label="gini = 0.12\nsamples = 10\nvalue = [15, 1]\nclass = 1", fillcolor="#e58139ee"] ;
8 -> 9 ;
10 [label="gini = 0.0\nsamples = 2\nvalue = [3, 0]\nclass = 1", fillcolor="#e58139ff"] ;
8 -> 10 ;
11 [label="gini = 0.0\nsamples = 1\nvalue = [0, 1]\nclass = 2", fillcolor="#399de5ff"] ;
3 -> 11 ;
12 [label="intrvw_ven <= 6.5\ngini = 0.41\nsamples = 517\nvalue = [582, 241]\nclass = 1", fillcolor="#e5813995"] ;
2 -> 12 ;
13 [label="enq_unsch_meet <= 1.5\ngini = 0.41\nsamples = 515\nvalue = [582, 237]\nclass = 1", fillcolor="#e5813997"] ;
12 -> 13 ;
14 [label="cand_nat_loc <= 1.5\ngini = 0.41\nsamples = 513\nvalue = [582, 232]\nclass = 1", fillcolor="#e5813999"] ;
13 -> 14 ;
15 [label="gini = 0.44\nsamples = 252\nvalue = [269, 134]\nclass = 1", fillcolor="#e5813980"] ;
14 -> 15 ;
16 [label="gini = 0.36\nsamples = 261\nvalue = [313, 98]\nclass = 1", fillcolor="#e58139af"] ;
14 -> 16 ;
17 [label="gini = 0.0\nsamples = 2\nvalue = [0, 5]\nclass = 2", fillcolor="#399de5ff"] ;
13 -> 17 ;
18 [label="gini = 0.0\nsamples = 2\nvalue = [0, 4]\nclass = 2", fillcolor="#399de5ff"] ;
12 -> 18 ;
19 [label="cand_nat_loc <= 25.5\ngini = 0.5\nsamples = 141\nvalue = [114, 106]\nclass = 1", fillcolor="#e5813912"] ;
1 -> 19 ;
20 [label="enq_resume <= 2.5\ngini = 0.5\nsamples = 138\nvalue = [109, 106]\nclass = 1", fillcolor="#e5813907"] ;
19 -> 20 ;
21 [label="enq_num <= 2.5\ngini = 0.5\nsamples = 134\nvalue = [102, 105]\nclass = 2", fillcolor="#399de507"] ;
20 -> 21 ;
22 [label="intrvw_ven <= 5.5\ngini = 0.5\nsamples = 133\nvalue = [99, 105]\nclass = 2", fillcolor="#399de50f"] ;
21 -> 22 ;
23 [label="gini = 0.5\nsamples = 132\nvalue = [99, 103]\nclass = 2", fillcolor="#399de50a"] ;
22 -> 23 ;
24 [label="gini = 0.0\nsamples = 1\nvalue = [0, 2]\nclass = 2", fillcolor="#399de5ff"] ;
22 -> 24 ;
25 [label="gini = 0.0\nsamples = 1\nvalue = [3, 0]\nclass = 1", fillcolor="#e58139ff"] ;
21 -> 25 ;
26 [label="cand_nat_loc <= 5.5\ngini = 0.22\nsamples = 4\nvalue = [7, 1]\nclass = 1", fillcolor="#e58139db"] ;
20 -> 26 ;
27 [label="married <= 1.5\ngini = 0.28\nsamples = 3\nvalue = [5, 1]\nclass = 1", fillcolor="#e58139cc"] ;
26 -> 27 ;
28 [label="gini = 0.0\nsamples = 2\nvalue = [5, 0]\nclass = 1", fillcolor="#e58139ff"] ;
27 -> 28 ;
29 [label="gini = 0.0\nsamples = 1\nvalue = [0, 1]\nclass = 2", fillcolor="#399de5ff"] ;
27 -> 29 ;
30 [label="gini = 0.0\nsamples = 1\nvalue = [2, 0]\nclass = 1", fillcolor="#e58139ff"] ;
26 -> 30 ;
31 [label="gini = 0.0\nsamples = 3\nvalue = [5, 0]\nclass = 1", fillcolor="#e58139ff"] ;
19 -> 31 ;
32 [label="enq_ven <= 2.5\ngini = 0.02\nsamples = 55\nvalue = [1, 94]\nclass = 2", fillcolor="#399de5fc"] ;
0 -> 32 [labeldistance=2.5, labelangle=-45, headlabel="False"] ;
33 [label="gini = 0.0\nsamples = 39\nvalue = [0, 74]\nclass = 2", fillcolor="#399de5ff"] ;
32 -> 33 ;
34 [label="pos <= 3.0\ngini = 0.09\nsamples = 16\nvalue = [1, 20]\nclass = 2", fillcolor="#399de5f2"] ;
32 -> 34 ;
35 [label="gini = 0.0\nsamples = 14\nvalue = [0, 18]\nclass = 2", fillcolor="#399de5ff"] ;
34 -> 35 ;
36 [label="enq_call_letter <= 1.5\ngini = 0.44\nsamples = 2\nvalue = [1, 2]\nclass = 2", fillcolor="#399de57f"] ;
34 -> 36 ;
37 [label="gini = 0.0\nsamples = 1\nvalue = [0, 2]\nclass = 2", fillcolor="#399de5ff"] ;
36 -> 37 ;
38 [label="gini = 0.0\nsamples = 1\nvalue = [1, 0]\nclass = 1", fillcolor="#e58139ff"] ;
36 -> 38 ;
}