digraph Tree {
node [shape=box, style="filled, rounded", color="black", fontname=helvetica] ;
edge [fontname=helvetica] ;
0 [label="enq_perm_1 <= 0.5\ngini = 0.45\nsamples = 782\nvalue = [413, 820]\nclass = 0", fillcolor="#399de57f"] ;
1 [label="enq_resume_1 <= 0.5\ngini = 0.48\nsamples = 194\nvalue = [187, 119]\nclass = 1", fillcolor="#e581395d"] ;
0 -> 1 [labeldistance=2.5, labelangle=45, headlabel="True"] ;
2 [label="enq_num_1 <= 0.5\ngini = 0.49\nsamples = 177\nvalue = [159, 116]\nclass = 1", fillcolor="#e5813945"] ;
1 -> 2 ;
3 [label="cl_loc <= 1.5\ngini = 0.49\nsamples = 171\nvalue = [150, 116]\nclass = 1", fillcolor="#e581393a"] ;
2 -> 3 ;
4 [label="day <= 3.5\ngini = 0.47\nsamples = 110\nvalue = [107, 64]\nclass = 1", fillcolor="#e5813966"] ;
3 -> 4 ;
5 [label="married_2 <= 0.5\ngini = 0.49\nsamples = 29\nvalue = [20, 26]\nclass = 0", fillcolor="#399de53b"] ;
4 -> 5 ;
6 [label="gini = 0.5\nsamples = 18\nvalue = [16, 16]\nclass = 1", fillcolor="#e5813900"] ;
5 -> 6 ;
7 [label="gini = 0.41\nsamples = 11\nvalue = [4, 10]\nclass = 0", fillcolor="#399de599"] ;
5 -> 7 ;
8 [label="cl_nam <= 2.5\ngini = 0.42\nsamples = 81\nvalue = [87, 38]\nclass = 1", fillcolor="#e5813990"] ;
4 -> 8 ;
9 [label="gini = 0.46\nsamples = 71\nvalue = [69, 38]\nclass = 1", fillcolor="#e5813973"] ;
8 -> 9 ;
10 [label="gini = 0.0\nsamples = 10\nvalue = [18, 0]\nclass = 1", fillcolor="#e58139ff"] ;
8 -> 10 ;
11 [label="expc_at <= 2.5\ngini = 0.5\nsamples = 61\nvalue = [43, 52]\nclass = 0", fillcolor="#399de52c"] ;
3 -> 11 ;
12 [label="married_1 <= 0.5\ngini = 0.49\nsamples = 58\nvalue = [38, 52]\nclass = 0", fillcolor="#399de545"] ;
11 -> 12 ;
13 [label="gini = 0.48\nsamples = 21\nvalue = [17, 11]\nclass = 1", fillcolor="#e581395a"] ;
12 -> 13 ;
14 [label="gini = 0.45\nsamples = 37\nvalue = [21, 41]\nclass = 0", fillcolor="#399de57c"] ;
12 -> 14 ;
15 [label="gini = 0.0\nsamples = 3\nvalue = [5, 0]\nclass = 1", fillcolor="#e58139ff"] ;
11 -> 15 ;
16 [label="gini = 0.0\nsamples = 6\nvalue = [9, 0]\nclass = 1", fillcolor="#e58139ff"] ;
2 -> 16 ;
17 [label="month <= 1.5\ngini = 0.17\nsamples = 17\nvalue = [28, 3]\nclass = 1", fillcolor="#e58139e4"] ;
1 -> 17 ;
18 [label="gini = 0.0\nsamples = 1\nvalue = [0, 1]\nclass = 0", fillcolor="#399de5ff"] ;
17 -> 18 ;
19 [label="expc_at <= 2.5\ngini = 0.12\nsamples = 16\nvalue = [28, 2]\nclass = 1", fillcolor="#e58139ed"] ;
17 -> 19 ;
20 [label="intrvw_typ_1 <= 0.5\ngini = 0.28\nsamples = 5\nvalue = [10, 2]\nclass = 1", fillcolor="#e58139cc"] ;
19 -> 20 ;
21 [label="gini = 0.0\nsamples = 2\nvalue = [2, 0]\nclass = 1", fillcolor="#e58139ff"] ;
20 -> 21 ;
22 [label="cand_nat_loc <= 7.5\ngini = 0.32\nsamples = 3\nvalue = [8, 2]\nclass = 1", fillcolor="#e58139bf"] ;
20 -> 22 ;
23 [label="gini = 0.0\nsamples = 1\nvalue = [7, 0]\nclass = 1", fillcolor="#e58139ff"] ;
22 -> 23 ;
24 [label="gini = 0.44\nsamples = 2\nvalue = [1, 2]\nclass = 0", fillcolor="#399de57f"] ;
22 -> 24 ;
25 [label="gini = 0.0\nsamples = 11\nvalue = [18, 0]\nclass = 1", fillcolor="#e58139ff"] ;
19 -> 25 ;
26 [label="pos <= 1.5\ngini = 0.37\nsamples = 588\nvalue = [226, 701]\nclass = 0", fillcolor="#399de5ad"] ;
0 -> 26 [labeldistance=2.5, labelangle=-45, headlabel="False"] ;
27 [label="cand_nat_loc <= 2.5\ngini = 0.39\nsamples = 503\nvalue = [207, 574]\nclass = 0", fillcolor="#399de5a3"] ;
26 -> 27 ;
28 [label="intrvw_typ_2 <= 0.5\ngini = 0.43\nsamples = 319\nvalue = [154, 334]\nclass = 0", fillcolor="#399de589"] ;
27 -> 28 ;
29 [label="cl_loc <= 1.5\ngini = 0.45\nsamples = 266\nvalue = [140, 273]\nclass = 0", fillcolor="#399de57c"] ;
28 -> 29 ;
30 [label="cl_nam <= 2.0\ngini = 0.45\nsamples = 254\nvalue = [134, 260]\nclass = 0", fillcolor="#399de57c"] ;
29 -> 30 ;
31 [label="gini = 0.44\nsamples = 243\nvalue = [123, 255]\nclass = 0", fillcolor="#399de584"] ;
30 -> 31 ;
32 [label="gini = 0.43\nsamples = 11\nvalue = [11, 5]\nclass = 1", fillcolor="#e581398b"] ;
30 -> 32 ;
33 [label="day <= 4.5\ngini = 0.43\nsamples = 12\nvalue = [6, 13]\nclass = 0", fillcolor="#399de589"] ;
29 -> 33 ;
34 [label="gini = 0.38\nsamples = 9\nvalue = [4, 12]\nclass = 0", fillcolor="#399de5aa"] ;
33 -> 34 ;
35 [label="gini = 0.44\nsamples = 3\nvalue = [2, 1]\nclass = 1", fillcolor="#e581397f"] ;
33 -> 35 ;
36 [label="expc_at <= 1.5\ngini = 0.3\nsamples = 53\nvalue = [14, 61]\nclass = 0", fillcolor="#399de5c4"] ;
28 -> 36 ;
37 [label="cl_nam <= 6.5\ngini = 0.27\nsamples = 48\nvalue = [11, 56]\nclass = 0", fillcolor="#399de5cd"] ;
36 -> 37 ;
38 [label="gini = 0.21\nsamples = 41\nvalue = [7, 52]\nclass = 0", fillcolor="#399de5dd"] ;
37 -> 38 ;
39 [label="gini = 0.5\nsamples = 7\nvalue = [4, 4]\nclass = 1", fillcolor="#e5813900"] ;
37 -> 39 ;
40 [label="married_2 <= 0.5\ngini = 0.47\nsamples = 5\nvalue = [3, 5]\nclass = 0", fillcolor="#399de566"] ;
36 -> 40 ;
41 [label="gini = 0.0\nsamples = 1\nvalue = [1, 0]\nclass = 1", fillcolor="#e58139ff"] ;
40 -> 41 ;
42 [label="gini = 0.41\nsamples = 4\nvalue = [2, 5]\nclass = 0", fillcolor="#399de599"] ;
40 -> 42 ;
43 [label="cand_nat_loc <= 18.5\ngini = 0.3\nsamples = 184\nvalue = [53, 240]\nclass = 0", fillcolor="#399de5c7"] ;
27 -> 43 ;
44 [label="expc_at <= 1.5\ngini = 0.32\nsamples = 162\nvalue = [51, 207]\nclass = 0", fillcolor="#399de5c0"] ;
43 -> 44 ;
45 [label="indus <= 4.5\ngini = 0.3\nsamples = 157\nvalue = [46, 206]\nclass = 0", fillcolor="#399de5c6"] ;
44 -> 45 ;
46 [label="gini = 0.29\nsamples = 153\nvalue = [43, 202]\nclass = 0", fillcolor="#399de5c9"] ;
45 -> 46 ;
47 [label="gini = 0.49\nsamples = 4\nvalue = [3, 4]\nclass = 0", fillcolor="#399de540"] ;
45 -> 47 ;
48 [label="cl_nam <= 2.0\ngini = 0.28\nsamples = 5\nvalue = [5, 1]\nclass = 1", fillcolor="#e58139cc"] ;
44 -> 48 ;
49 [label="gini = 0.38\nsamples = 3\nvalue = [3, 1]\nclass = 1", fillcolor="#e58139aa"] ;
48 -> 49 ;
50 [label="gini = 0.0\nsamples = 2\nvalue = [2, 0]\nclass = 1", fillcolor="#e58139ff"] ;
48 -> 50 ;
51 [label="cand_cur_loc <= 1.5\ngini = 0.11\nsamples = 22\nvalue = [2, 33]\nclass = 0", fillcolor="#399de5f0"] ;
43 -> 51 ;
52 [label="married_2 <= 0.5\ngini = 0.2\nsamples = 11\nvalue = [2, 16]\nclass = 0", fillcolor="#399de5df"] ;
51 -> 52 ;
53 [label="gini = 0.13\nsamples = 8\nvalue = [1, 13]\nclass = 0", fillcolor="#399de5eb"] ;
52 -> 53 ;
54 [label="gini = 0.38\nsamples = 3\nvalue = [1, 3]\nclass = 0", fillcolor="#399de5aa"] ;
52 -> 54 ;
55 [label="gini = 0.0\nsamples = 11\nvalue = [0, 17]\nclass = 0", fillcolor="#399de5ff"] ;
51 -> 55 ;
56 [label="enq_num_1 <= 0.5\ngini = 0.23\nsamples = 85\nvalue = [19, 127]\nclass = 0", fillcolor="#399de5d9"] ;
26 -> 56 ;
57 [label="gini = 0.0\nsamples = 3\nvalue = [3, 0]\nclass = 1", fillcolor="#e58139ff"] ;
56 -> 57 ;
58 [label="cand_cur_loc <= 3.5\ngini = 0.2\nsamples = 82\nvalue = [16, 127]\nclass = 0", fillcolor="#399de5df"] ;
56 -> 58 ;
59 [label="intrvw_ven <= 5.0\ngini = 0.24\nsamples = 69\nvalue = [16, 100]\nclass = 0", fillcolor="#399de5d6"] ;
58 -> 59 ;
60 [label="cand_cur_loc <= 1.5\ngini = 0.2\nsamples = 66\nvalue = [13, 100]\nclass = 0", fillcolor="#399de5de"] ;
59 -> 60 ;
61 [label="gini = 0.15\nsamples = 40\nvalue = [6, 69]\nclass = 0", fillcolor="#399de5e9"] ;
60 -> 61 ;
62 [label="gini = 0.3\nsamples = 26\nvalue = [7, 31]\nclass = 0", fillcolor="#399de5c5"] ;
60 -> 62 ;
63 [label="gini = 0.0\nsamples = 3\nvalue = [3, 0]\nclass = 1", fillcolor="#e58139ff"] ;
59 -> 63 ;
64 [label="gini = 0.0\nsamples = 13\nvalue = [0, 27]\nclass = 0", fillcolor="#399de5ff"] ;
58 -> 64 ;
}