digraph Tree {
node [shape=box, style="filled, rounded", color="black", fontname=helvetica] ;
edge [fontname=helvetica] ;
0 [label="expc_at <= 2.5\ngini = 0.47\nsamples = 770\nvalue = [467, 766]\nclass = 0", fillcolor="#399de564"] ;
1 [label="expc_at <= 1.5\ngini = 0.43\nsamples = 704\nvalue = [355, 766]\nclass = 0", fillcolor="#399de589"] ;
0 -> 1 [labeldistance=2.5, labelangle=45, headlabel="True"] ;
2 [label="cand_nat_loc_1 <= 0.5\ngini = 0.38\nsamples = 536\nvalue = [220, 639]\nclass = 0", fillcolor="#399de5a7"] ;
1 -> 2 ;
3 [label="day_6 <= 0.5\ngini = 0.32\nsamples = 268\nvalue = [90, 358]\nclass = 0", fillcolor="#399de5bf"] ;
2 -> 3 ;
4 [label="married_1 <= 0.5\ngini = 0.29\nsamples = 182\nvalue = [53, 251]\nclass = 0", fillcolor="#399de5c9"] ;
3 -> 4 ;
5 [label="cl_nam_1 <= 0.5\ngini = 0.2\nsamples = 50\nvalue = [9, 70]\nclass = 0", fillcolor="#399de5de"] ;
4 -> 5 ;
6 [label="gini = 0.15\nsamples = 16\nvalue = [2, 22]\nclass = 0", fillcolor="#399de5e8"] ;
5 -> 6 ;
7 [label="gini = 0.22\nsamples = 34\nvalue = [7, 48]\nclass = 0", fillcolor="#399de5da"] ;
5 -> 7 ;
8 [label="cl_loc_1 <= 0.5\ngini = 0.31\nsamples = 132\nvalue = [44, 181]\nclass = 0", fillcolor="#399de5c1"] ;
4 -> 8 ;
9 [label="gini = 0.32\nsamples = 110\nvalue = [37, 146]\nclass = 0", fillcolor="#399de5be"] ;
8 -> 9 ;
10 [label="gini = 0.28\nsamples = 22\nvalue = [7, 35]\nclass = 0", fillcolor="#399de5cc"] ;
8 -> 10 ;
11 [label="intrvw_typ_1 <= 0.5\ngini = 0.38\nsamples = 86\nvalue = [37, 107]\nclass = 0", fillcolor="#399de5a7"] ;
3 -> 11 ;
12 [label="cand_cur_loc_1 <= 0.5\ngini = 0.19\nsamples = 18\nvalue = [3, 26]\nclass = 0", fillcolor="#399de5e2"] ;
11 -> 12 ;
13 [label="gini = 0.21\nsamples = 9\nvalue = [2, 15]\nclass = 0", fillcolor="#399de5dd"] ;
12 -> 13 ;
14 [label="gini = 0.15\nsamples = 9\nvalue = [1, 11]\nclass = 0", fillcolor="#399de5e8"] ;
12 -> 14 ;
15 [label="married_2 <= 0.5\ngini = 0.42\nsamples = 68\nvalue = [34, 81]\nclass = 0", fillcolor="#399de594"] ;
11 -> 15 ;
16 [label="gini = 0.37\nsamples = 45\nvalue = [18, 55]\nclass = 0", fillcolor="#399de5ac"] ;
15 -> 16 ;
17 [label="gini = 0.47\nsamples = 23\nvalue = [16, 26]\nclass = 0", fillcolor="#399de562"] ;
15 -> 17 ;
18 [label="cand_cur_loc_1 <= 0.5\ngini = 0.43\nsamples = 268\nvalue = [130, 281]\nclass = 0", fillcolor="#399de589"] ;
2 -> 18 ;
19 [label="intrvw_ven_1 <= 0.5\ngini = 0.14\nsamples = 8\nvalue = [1, 12]\nclass = 0", fillcolor="#399de5ea"] ;
18 -> 19 ;
20 [label="married_2 <= 0.5\ngini = 0.22\nsamples = 6\nvalue = [1, 7]\nclass = 0", fillcolor="#399de5db"] ;
19 -> 20 ;
21 [label="gini = 0.24\nsamples = 5\nvalue = [1, 6]\nclass = 0", fillcolor="#399de5d4"] ;
20 -> 21 ;
22 [label="gini = 0.0\nsamples = 1\nvalue = [0, 1]\nclass = 0", fillcolor="#399de5ff"] ;
20 -> 22 ;
23 [label="gini = 0.0\nsamples = 2\nvalue = [0, 5]\nclass = 0", fillcolor="#399de5ff"] ;
19 -> 23 ;
24 [label="month_2 <= 0.5\ngini = 0.44\nsamples = 260\nvalue = [129, 269]\nclass = 0", fillcolor="#399de585"] ;
18 -> 24 ;
25 [label="married_1 <= 0.5\ngini = 0.45\nsamples = 176\nvalue = [87, 173]\nclass = 0", fillcolor="#399de57f"] ;
24 -> 25 ;
26 [label="gini = 0.45\nsamples = 85\nvalue = [44, 85]\nclass = 0", fillcolor="#399de57b"] ;
25 -> 26 ;
27 [label="gini = 0.44\nsamples = 91\nvalue = [43, 88]\nclass = 0", fillcolor="#399de582"] ;
25 -> 27 ;
28 [label="intrvw_typ_1 <= 0.5\ngini = 0.42\nsamples = 84\nvalue = [42, 96]\nclass = 0", fillcolor="#399de58f"] ;
24 -> 28 ;
29 [label="gini = 0.48\nsamples = 12\nvalue = [8, 12]\nclass = 0", fillcolor="#399de555"] ;
28 -> 29 ;
30 [label="gini = 0.41\nsamples = 72\nvalue = [34, 84]\nclass = 0", fillcolor="#399de598"] ;
28 -> 30 ;
31 [label="intrvw_typ_1 <= 0.5\ngini = 0.5\nsamples = 168\nvalue = [135, 127]\nclass = 1", fillcolor="#e581390f"] ;
1 -> 31 ;
32 [label="married_1 <= 0.5\ngini = 0.49\nsamples = 84\nvalue = [79, 63]\nclass = 1", fillcolor="#e5813934"] ;
31 -> 32 ;
33 [label="enq_num_1 <= 0.5\ngini = 0.47\nsamples = 38\nvalue = [43, 26]\nclass = 1", fillcolor="#e5813965"] ;
32 -> 33 ;
34 [label="day_6 <= 0.5\ngini = 0.46\nsamples = 35\nvalue = [42, 23]\nclass = 1", fillcolor="#e5813973"] ;
33 -> 34 ;
35 [label="gini = 0.48\nsamples = 24\nvalue = [27, 18]\nclass = 1", fillcolor="#e5813955"] ;
34 -> 35 ;
36 [label="gini = 0.38\nsamples = 11\nvalue = [15, 5]\nclass = 1", fillcolor="#e58139aa"] ;
34 -> 36 ;
37 [label="cand_cur_loc_2 <= 0.5\ngini = 0.38\nsamples = 3\nvalue = [1, 3]\nclass = 0", fillcolor="#399de5aa"] ;
33 -> 37 ;
38 [label="gini = 0.0\nsamples = 2\nvalue = [0, 3]\nclass = 0", fillcolor="#399de5ff"] ;
37 -> 38 ;
39 [label="gini = 0.0\nsamples = 1\nvalue = [1, 0]\nclass = 1", fillcolor="#e58139ff"] ;
37 -> 39 ;
40 [label="enq_perm_1 <= 0.5\ngini = 0.5\nsamples = 46\nvalue = [36, 37]\nclass = 0", fillcolor="#399de507"] ;
32 -> 40 ;
41 [label="cand_cur_loc_2 <= 0.5\ngini = 0.5\nsamples = 37\nvalue = [28, 31]\nclass = 0", fillcolor="#399de519"] ;
40 -> 41 ;
42 [label="gini = 0.5\nsamples = 32\nvalue = [25, 27]\nclass = 0", fillcolor="#399de513"] ;
41 -> 42 ;
43 [label="gini = 0.49\nsamples = 5\nvalue = [3, 4]\nclass = 0", fillcolor="#399de540"] ;
41 -> 43 ;
44 [label="cl_loc_1 <= 0.5\ngini = 0.49\nsamples = 9\nvalue = [8, 6]\nclass = 1", fillcolor="#e5813940"] ;
40 -> 44 ;
45 [label="gini = 0.44\nsamples = 5\nvalue = [6, 3]\nclass = 1", fillcolor="#e581397f"] ;
44 -> 45 ;
46 [label="gini = 0.48\nsamples = 4\nvalue = [2, 3]\nclass = 0", fillcolor="#399de555"] ;
44 -> 46 ;
47 [label="married_1 <= 0.5\ngini = 0.5\nsamples = 84\nvalue = [56, 64]\nclass = 0", fillcolor="#399de520"] ;
31 -> 47 ;
48 [label="cand_cur_loc_2 <= 0.5\ngini = 0.49\nsamples = 26\nvalue = [19, 15]\nclass = 1", fillcolor="#e5813936"] ;
47 -> 48 ;
49 [label="cand_j_loc_1 <= 0.5\ngini = 0.48\nsamples = 16\nvalue = [12, 8]\nclass = 1", fillcolor="#e5813955"] ;
48 -> 49 ;
50 [label="gini = 0.0\nsamples = 1\nvalue = [1, 0]\nclass = 1", fillcolor="#e58139ff"] ;
49 -> 50 ;
51 [label="gini = 0.49\nsamples = 15\nvalue = [11, 8]\nclass = 1", fillcolor="#e5813946"] ;
49 -> 51 ;
52 [label="cl_nam_1 <= 0.5\ngini = 0.5\nsamples = 10\nvalue = [7, 7]\nclass = 1", fillcolor="#e5813900"] ;
48 -> 52 ;
53 [label="gini = 0.5\nsamples = 2\nvalue = [1, 1]\nclass = 1", fillcolor="#e5813900"] ;
52 -> 53 ;
54 [label="gini = 0.5\nsamples = 8\nvalue = [6, 6]\nclass = 1", fillcolor="#e5813900"] ;
52 -> 54 ;
55 [label="enq_num_1 <= 0.5\ngini = 0.49\nsamples = 58\nvalue = [37, 49]\nclass = 0", fillcolor="#399de53e"] ;
47 -> 55 ;
56 [label="enq_resume_1 <= 0.5\ngini = 0.5\nsamples = 55\nvalue = [37, 45]\nclass = 0", fillcolor="#399de52d"] ;
55 -> 56 ;
57 [label="gini = 0.5\nsamples = 54\nvalue = [37, 43]\nclass = 0", fillcolor="#399de524"] ;
56 -> 57 ;
58 [label="gini = 0.0\nsamples = 1\nvalue = [0, 2]\nclass = 0", fillcolor="#399de5ff"] ;
56 -> 58 ;
59 [label="gini = 0.0\nsamples = 3\nvalue = [0, 4]\nclass = 0", fillcolor="#399de5ff"] ;
55 -> 59 ;
60 [label="gini = 0.0\nsamples = 66\nvalue = [112, 0]\nclass = 1", fillcolor="#e58139ff"] ;
0 -> 60 [labeldistance=2.5, labelangle=-45, headlabel="False"] ;
}