digraph Tree {
node [shape=box, style="filled, rounded", color="black", fontname=helvetica] ;
edge [fontname=helvetica] ;
0 [label="enq_call_letter <= 1.5\ngini = 0.45\nsamples = 790\nvalue = [804, 429]\nclass = 1", fillcolor="#e5813977"] ;
1 [label="cand_nat_loc <= 3.5\ngini = 0.4\nsamples = 605\nvalue = [687, 269]\nclass = 1", fillcolor="#e581399b"] ;
0 -> 1 [labeldistance=2.5, labelangle=45, headlabel="True"] ;
2 [label="enq_unsch_meet <= 2.0\ngini = 0.43\nsamples = 468\nvalue = [508, 231]\nclass = 1", fillcolor="#e581398b"] ;
1 -> 2 ;
3 [label="pos <= 4.5\ngini = 0.43\nsamples = 467\nvalue = [508, 229]\nclass = 1", fillcolor="#e581398c"] ;
2 -> 3 ;
4 [label="intrvw_typ <= 2.5\ngini = 0.43\nsamples = 462\nvalue = [507, 224]\nclass = 1", fillcolor="#e581398e"] ;
3 -> 4 ;
5 [label="month <= 3.5\ngini = 0.41\nsamples = 372\nvalue = [428, 169]\nclass = 1", fillcolor="#e581399a"] ;
4 -> 5 ;
6 [label="gini = 0.44\nsamples = 187\nvalue = [200, 100]\nclass = 1", fillcolor="#e581397f"] ;
5 -> 6 ;
7 [label="gini = 0.36\nsamples = 185\nvalue = [228, 69]\nclass = 1", fillcolor="#e58139b2"] ;
5 -> 7 ;
8 [label="enq_num <= 2.0\ngini = 0.48\nsamples = 90\nvalue = [79, 55]\nclass = 1", fillcolor="#e581394d"] ;
4 -> 8 ;
9 [label="gini = 0.48\nsamples = 89\nvalue = [79, 54]\nclass = 1", fillcolor="#e5813951"] ;
8 -> 9 ;
10 [label="gini = 0.0\nsamples = 1\nvalue = [0, 1]\nclass = 2", fillcolor="#399de5ff"] ;
8 -> 10 ;
11 [label="intrvw_ven <= 4.0\ngini = 0.28\nsamples = 5\nvalue = [1, 5]\nclass = 2", fillcolor="#399de5cc"] ;
3 -> 11 ;
12 [label="enq_num <= 2.0\ngini = 0.38\nsamples = 3\nvalue = [1, 3]\nclass = 2", fillcolor="#399de5aa"] ;
11 -> 12 ;
13 [label="gini = 0.5\nsamples = 2\nvalue = [1, 1]\nclass = 1", fillcolor="#e5813900"] ;
12 -> 13 ;
14 [label="gini = 0.0\nsamples = 1\nvalue = [0, 2]\nclass = 2", fillcolor="#399de5ff"] ;
12 -> 14 ;
15 [label="gini = 0.0\nsamples = 2\nvalue = [0, 2]\nclass = 2", fillcolor="#399de5ff"] ;
11 -> 15 ;
16 [label="gini = 0.0\nsamples = 1\nvalue = [0, 2]\nclass = 2", fillcolor="#399de5ff"] ;
2 -> 16 ;
17 [label="cand_nat_loc <= 24.5\ngini = 0.29\nsamples = 137\nvalue = [179, 38]\nclass = 1", fillcolor="#e58139c9"] ;
1 -> 17 ;
18 [label="intrvw_ven <= 5.5\ngini = 0.26\nsamples = 124\nvalue = [166, 30]\nclass = 1", fillcolor="#e58139d1"] ;
17 -> 18 ;
19 [label="cl_loc <= 3.5\ngini = 0.24\nsamples = 117\nvalue = [162, 26]\nclass = 1", fillcolor="#e58139d6"] ;
18 -> 19 ;
20 [label="enq_num <= 2.0\ngini = 0.26\nsamples = 97\nvalue = [135, 25]\nclass = 1", fillcolor="#e58139d0"] ;
19 -> 20 ;
21 [label="gini = 0.23\nsamples = 93\nvalue = [134, 21]\nclass = 1", fillcolor="#e58139d7"] ;
20 -> 21 ;
22 [label="gini = 0.32\nsamples = 4\nvalue = [1, 4]\nclass = 2", fillcolor="#399de5bf"] ;
20 -> 22 ;
23 [label="intrvw_ven <= 4.5\ngini = 0.07\nsamples = 20\nvalue = [27, 1]\nclass = 1", fillcolor="#e58139f6"] ;
19 -> 23 ;
24 [label="gini = 0.1\nsamples = 13\nvalue = [18, 1]\nclass = 1", fillcolor="#e58139f1"] ;
23 -> 24 ;
25 [label="gini = 0.0\nsamples = 7\nvalue = [9, 0]\nclass = 1", fillcolor="#e58139ff"] ;
23 -> 25 ;
26 [label="pos <= 1.5\ngini = 0.5\nsamples = 7\nvalue = [4, 4]\nclass = 1", fillcolor="#e5813900"] ;
18 -> 26 ;
27 [label="gini = 0.0\nsamples = 3\nvalue = [3, 0]\nclass = 1", fillcolor="#e58139ff"] ;
26 -> 27 ;
28 [label="cand_nat_loc <= 17.0\ngini = 0.32\nsamples = 4\nvalue = [1, 4]\nclass = 2", fillcolor="#399de5bf"] ;
26 -> 28 ;
29 [label="gini = 0.0\nsamples = 3\nvalue = [0, 4]\nclass = 2", fillcolor="#399de5ff"] ;
28 -> 29 ;
30 [label="gini = 0.0\nsamples = 1\nvalue = [1, 0]\nclass = 1", fillcolor="#e58139ff"] ;
28 -> 30 ;
31 [label="month <= 3.5\ngini = 0.47\nsamples = 13\nvalue = [13, 8]\nclass = 1", fillcolor="#e5813962"] ;
17 -> 31 ;
32 [label="gini = 0.0\nsamples = 3\nvalue = [5, 0]\nclass = 1", fillcolor="#e58139ff"] ;
31 -> 32 ;
33 [label="enq_unsch_meet <= 1.5\ngini = 0.5\nsamples = 10\nvalue = [8, 8]\nclass = 1", fillcolor="#e5813900"] ;
31 -> 33 ;
34 [label="month <= 4.5\ngini = 0.49\nsamples = 9\nvalue = [8, 6]\nclass = 1", fillcolor="#e5813940"] ;
33 -> 34 ;
35 [label="gini = 0.41\nsamples = 4\nvalue = [2, 5]\nclass = 2", fillcolor="#399de599"] ;
34 -> 35 ;
36 [label="gini = 0.24\nsamples = 5\nvalue = [6, 1]\nclass = 1", fillcolor="#e58139d4"] ;
34 -> 36 ;
37 [label="gini = 0.0\nsamples = 1\nvalue = [0, 2]\nclass = 2", fillcolor="#399de5ff"] ;
33 -> 37 ;
38 [label="enq_resume <= 2.5\ngini = 0.49\nsamples = 185\nvalue = [117, 160]\nclass = 2", fillcolor="#399de545"] ;
0 -> 38 [labeldistance=2.5, labelangle=-45, headlabel="False"] ;
39 [label="enq_perm <= 2.5\ngini = 0.5\nsamples = 167\nvalue = [116, 137]\nclass = 2", fillcolor="#399de527"] ;
38 -> 39 ;
40 [label="enq_perm <= 1.5\ngini = 0.5\nsamples = 137\nvalue = [113, 98]\nclass = 1", fillcolor="#e5813922"] ;
39 -> 40 ;
41 [label="gini = 0.0\nsamples = 4\nvalue = [0, 6]\nclass = 2", fillcolor="#399de5ff"] ;
40 -> 41 ;
42 [label="month <= 1.5\ngini = 0.49\nsamples = 133\nvalue = [113, 92]\nclass = 1", fillcolor="#e581392f"] ;
40 -> 42 ;
43 [label="intrvw_typ <= 1.5\ngini = 0.4\nsamples = 17\nvalue = [18, 7]\nclass = 1", fillcolor="#e581399c"] ;
42 -> 43 ;
44 [label="gini = 0.42\nsamples = 8\nvalue = [7, 3]\nclass = 1", fillcolor="#e5813992"] ;
43 -> 44 ;
45 [label="gini = 0.39\nsamples = 9\nvalue = [11, 4]\nclass = 1", fillcolor="#e58139a2"] ;
43 -> 45 ;
46 [label="cand_nat_loc <= 41.5\ngini = 0.5\nsamples = 116\nvalue = [95, 85]\nclass = 1", fillcolor="#e581391b"] ;
42 -> 46 ;
47 [label="gini = 0.5\nsamples = 115\nvalue = [95, 84]\nclass = 1", fillcolor="#e581391e"] ;
46 -> 47 ;
48 [label="gini = 0.0\nsamples = 1\nvalue = [0, 1]\nclass = 2", fillcolor="#399de5ff"] ;
46 -> 48 ;
49 [label="cand_nat_loc <= 12.0\ngini = 0.13\nsamples = 30\nvalue = [3, 39]\nclass = 2", fillcolor="#399de5eb"] ;
39 -> 49 ;
50 [label="expc_at <= 2.5\ngini = 0.05\nsamples = 26\nvalue = [1, 36]\nclass = 2", fillcolor="#399de5f8"] ;
49 -> 50 ;
51 [label="intrvw_ven <= 1.5\ngini = 0.44\nsamples = 3\nvalue = [1, 2]\nclass = 2", fillcolor="#399de57f"] ;
50 -> 51 ;
52 [label="gini = 0.5\nsamples = 2\nvalue = [1, 1]\nclass = 1", fillcolor="#e5813900"] ;
51 -> 52 ;
53 [label="gini = 0.0\nsamples = 1\nvalue = [0, 1]\nclass = 2", fillcolor="#399de5ff"] ;
51 -> 53 ;
54 [label="gini = 0.0\nsamples = 23\nvalue = [0, 34]\nclass = 2", fillcolor="#399de5ff"] ;
50 -> 54 ;
55 [label="enq_num <= 1.5\ngini = 0.48\nsamples = 4\nvalue = [2, 3]\nclass = 2", fillcolor="#399de555"] ;
49 -> 55 ;
56 [label="gini = 0.0\nsamples = 1\nvalue = [2, 0]\nclass = 1", fillcolor="#e58139ff"] ;
55 -> 56 ;
57 [label="gini = 0.0\nsamples = 3\nvalue = [0, 3]\nclass = 2", fillcolor="#399de5ff"] ;
55 -> 57 ;
58 [label="indus <= 1.5\ngini = 0.08\nsamples = 18\nvalue = [1, 23]\nclass = 2", fillcolor="#399de5f4"] ;
38 -> 58 ;
59 [label="cand_nat_loc <= 6.5\ngini = 0.22\nsamples = 7\nvalue = [1, 7]\nclass = 2", fillcolor="#399de5db"] ;
58 -> 59 ;
60 [label="gini = 0.0\nsamples = 6\nvalue = [0, 7]\nclass = 2", fillcolor="#399de5ff"] ;
59 -> 60 ;
61 [label="gini = 0.0\nsamples = 1\nvalue = [1, 0]\nclass = 1", fillcolor="#e58139ff"] ;
59 -> 61 ;
62 [label="gini = 0.0\nsamples = 11\nvalue = [0, 16]\nclass = 2", fillcolor="#399de5ff"] ;
58 -> 62 ;
}