digraph Tree {
node [shape=box, style="filled, rounded", color="black", fontname=helvetica] ;
edge [fontname=helvetica] ;
0 [label="enq_ven <= 1.5\ngini = 0.48\nsamples = 778\nvalue = [751, 482]\nclass = 1", fillcolor="#e581395b"] ;
1 [label="enq_resume <= 2.0\ngini = 0.42\nsamples = 590\nvalue = [653, 282]\nclass = 1", fillcolor="#e5813991"] ;
0 -> 1 [labeldistance=2.5, labelangle=45, headlabel="True"] ;
2 [label="enq_perm <= 2.0\ngini = 0.41\nsamples = 577\nvalue = [649, 258]\nclass = 1", fillcolor="#e581399a"] ;
1 -> 2 ;
3 [label="enq_call_letter <= 1.5\ngini = 0.4\nsamples = 567\nvalue = [646, 246]\nclass = 1", fillcolor="#e581399e"] ;
2 -> 3 ;
4 [label="cand_nat_loc <= 1.5\ngini = 0.4\nsamples = 559\nvalue = [643, 239]\nclass = 1", fillcolor="#e58139a0"] ;
3 -> 4 ;
5 [label="cand_j_loc <= 1.5\ngini = 0.43\nsamples = 270\nvalue = [294, 134]\nclass = 1", fillcolor="#e581398b"] ;
4 -> 5 ;
6 [label="gini = 0.43\nsamples = 266\nvalue = [290, 131]\nclass = 1", fillcolor="#e581398c"] ;
5 -> 6 ;
7 [label="gini = 0.49\nsamples = 4\nvalue = [4, 3]\nclass = 1", fillcolor="#e5813940"] ;
5 -> 7 ;
8 [label="month <= 1.5\ngini = 0.36\nsamples = 289\nvalue = [349, 105]\nclass = 1", fillcolor="#e58139b2"] ;
4 -> 8 ;
9 [label="gini = 0.1\nsamples = 20\nvalue = [34, 2]\nclass = 1", fillcolor="#e58139f0"] ;
8 -> 9 ;
10 [label="gini = 0.37\nsamples = 269\nvalue = [315, 103]\nclass = 1", fillcolor="#e58139ac"] ;
8 -> 10 ;
11 [label="cand_nat_loc <= 2.5\ngini = 0.42\nsamples = 8\nvalue = [3, 7]\nclass = 2", fillcolor="#399de592"] ;
3 -> 11 ;
12 [label="intrvw_ven <= 2.0\ngini = 0.5\nsamples = 5\nvalue = [3, 3]\nclass = 1", fillcolor="#e5813900"] ;
11 -> 12 ;
13 [label="gini = 0.48\nsamples = 4\nvalue = [2, 3]\nclass = 2", fillcolor="#399de555"] ;
12 -> 13 ;
14 [label="gini = 0.0\nsamples = 1\nvalue = [1, 0]\nclass = 1", fillcolor="#e58139ff"] ;
12 -> 14 ;
15 [label="gini = 0.0\nsamples = 3\nvalue = [0, 4]\nclass = 2", fillcolor="#399de5ff"] ;
11 -> 15 ;
16 [label="pos <= 2.5\ngini = 0.32\nsamples = 10\nvalue = [3, 12]\nclass = 2", fillcolor="#399de5bf"] ;
2 -> 16 ;
17 [label="gini = 0.0\nsamples = 6\nvalue = [0, 9]\nclass = 2", fillcolor="#399de5ff"] ;
16 -> 17 ;
18 [label="expc_at <= 2.5\ngini = 0.5\nsamples = 4\nvalue = [3, 3]\nclass = 1", fillcolor="#e5813900"] ;
16 -> 18 ;
19 [label="enq_call <= 2.0\ngini = 0.38\nsamples = 2\nvalue = [3, 1]\nclass = 1", fillcolor="#e58139aa"] ;
18 -> 19 ;
20 [label="gini = 0.0\nsamples = 1\nvalue = [3, 0]\nclass = 1", fillcolor="#e58139ff"] ;
19 -> 20 ;
21 [label="gini = 0.0\nsamples = 1\nvalue = [0, 1]\nclass = 2", fillcolor="#399de5ff"] ;
19 -> 21 ;
22 [label="gini = 0.0\nsamples = 2\nvalue = [0, 2]\nclass = 2", fillcolor="#399de5ff"] ;
18 -> 22 ;
23 [label="month <= 3.0\ngini = 0.24\nsamples = 13\nvalue = [4, 24]\nclass = 2", fillcolor="#399de5d4"] ;
1 -> 23 ;
24 [label="gini = 0.0\nsamples = 1\nvalue = [2, 0]\nclass = 1", fillcolor="#e58139ff"] ;
23 -> 24 ;
25 [label="cand_j_loc <= 3.5\ngini = 0.14\nsamples = 12\nvalue = [2, 24]\nclass = 2", fillcolor="#399de5ea"] ;
23 -> 25 ;
26 [label="gini = 0.0\nsamples = 8\nvalue = [0, 13]\nclass = 2", fillcolor="#399de5ff"] ;
25 -> 26 ;
27 [label="cl_loc <= 4.5\ngini = 0.26\nsamples = 4\nvalue = [2, 11]\nclass = 2", fillcolor="#399de5d1"] ;
25 -> 27 ;
28 [label="married <= 1.5\ngini = 0.44\nsamples = 2\nvalue = [2, 4]\nclass = 2", fillcolor="#399de57f"] ;
27 -> 28 ;
29 [label="gini = 0.0\nsamples = 1\nvalue = [2, 0]\nclass = 1", fillcolor="#e58139ff"] ;
28 -> 29 ;
30 [label="gini = 0.0\nsamples = 1\nvalue = [0, 4]\nclass = 2", fillcolor="#399de5ff"] ;
28 -> 30 ;
31 [label="gini = 0.0\nsamples = 2\nvalue = [0, 7]\nclass = 2", fillcolor="#399de5ff"] ;
27 -> 31 ;
32 [label="enq_perm <= 2.5\ngini = 0.44\nsamples = 188\nvalue = [98, 200]\nclass = 2", fillcolor="#399de582"] ;
0 -> 32 [labeldistance=2.5, labelangle=-45, headlabel="False"] ;
33 [label="enq_ven <= 2.5\ngini = 0.49\nsamples = 139\nvalue = [91, 127]\nclass = 2", fillcolor="#399de548"] ;
32 -> 33 ;
34 [label="month <= 10.0\ngini = 0.49\nsamples = 133\nvalue = [90, 119]\nclass = 2", fillcolor="#399de53e"] ;
33 -> 34 ;
35 [label="month <= 3.5\ngini = 0.49\nsamples = 121\nvalue = [84, 104]\nclass = 2", fillcolor="#399de531"] ;
34 -> 35 ;
36 [label="cand_nat_loc <= 4.0\ngini = 0.48\nsamples = 51\nvalue = [32, 46]\nclass = 2", fillcolor="#399de54e"] ;
35 -> 36 ;
37 [label="gini = 0.5\nsamples = 38\nvalue = [29, 25]\nclass = 1", fillcolor="#e5813923"] ;
36 -> 37 ;
38 [label="gini = 0.22\nsamples = 13\nvalue = [3, 21]\nclass = 2", fillcolor="#399de5db"] ;
36 -> 38 ;
39 [label="day <= 4.5\ngini = 0.5\nsamples = 70\nvalue = [52, 58]\nclass = 2", fillcolor="#399de51a"] ;
35 -> 39 ;
40 [label="gini = 0.5\nsamples = 49\nvalue = [40, 37]\nclass = 1", fillcolor="#e5813913"] ;
39 -> 40 ;
41 [label="gini = 0.46\nsamples = 21\nvalue = [12, 21]\nclass = 2", fillcolor="#399de56d"] ;
39 -> 41 ;
42 [label="month <= 11.5\ngini = 0.41\nsamples = 12\nvalue = [6, 15]\nclass = 2", fillcolor="#399de599"] ;
34 -> 42 ;
43 [label="married <= 1.5\ngini = 0.41\nsamples = 8\nvalue = [4, 10]\nclass = 2", fillcolor="#399de599"] ;
42 -> 43 ;
44 [label="gini = 0.48\nsamples = 6\nvalue = [4, 6]\nclass = 2", fillcolor="#399de555"] ;
43 -> 44 ;
45 [label="gini = 0.0\nsamples = 2\nvalue = [0, 4]\nclass = 2", fillcolor="#399de5ff"] ;
43 -> 45 ;
46 [label="cand_nat_loc <= 8.5\ngini = 0.41\nsamples = 4\nvalue = [2, 5]\nclass = 2", fillcolor="#399de599"] ;
42 -> 46 ;
47 [label="gini = 0.28\nsamples = 3\nvalue = [1, 5]\nclass = 2", fillcolor="#399de5cc"] ;
46 -> 47 ;
48 [label="gini = 0.0\nsamples = 1\nvalue = [1, 0]\nclass = 1", fillcolor="#e58139ff"] ;
46 -> 48 ;
49 [label="month <= 5.5\ngini = 0.2\nsamples = 6\nvalue = [1, 8]\nclass = 2", fillcolor="#399de5df"] ;
33 -> 49 ;
50 [label="gini = 0.0\nsamples = 3\nvalue = [0, 4]\nclass = 2", fillcolor="#399de5ff"] ;
49 -> 50 ;
51 [label="pos <= 2.5\ngini = 0.32\nsamples = 3\nvalue = [1, 4]\nclass = 2", fillcolor="#399de5bf"] ;
49 -> 51 ;
52 [label="gini = 0.0\nsamples = 1\nvalue = [0, 2]\nclass = 2", fillcolor="#399de5ff"] ;
51 -> 52 ;
53 [label="pos <= 4.5\ngini = 0.44\nsamples = 2\nvalue = [1, 2]\nclass = 2", fillcolor="#399de57f"] ;
51 -> 53 ;
54 [label="gini = 0.0\nsamples = 1\nvalue = [1, 0]\nclass = 1", fillcolor="#e58139ff"] ;
53 -> 54 ;
55 [label="gini = 0.0\nsamples = 1\nvalue = [0, 2]\nclass = 2", fillcolor="#399de5ff"] ;
53 -> 55 ;
56 [label="married <= 1.5\ngini = 0.16\nsamples = 49\nvalue = [7, 73]\nclass = 2", fillcolor="#399de5e7"] ;
32 -> 56 ;
57 [label="cl_nam <= 1.5\ngini = 0.23\nsamples = 26\nvalue = [6, 40]\nclass = 2", fillcolor="#399de5d9"] ;
56 -> 57 ;
58 [label="expc_at <= 2.5\ngini = 0.33\nsamples = 17\nvalue = [6, 23]\nclass = 2", fillcolor="#399de5bc"] ;
57 -> 58 ;
59 [label="month <= 7.0\ngini = 0.48\nsamples = 4\nvalue = [6, 4]\nclass = 1", fillcolor="#e5813955"] ;
58 -> 59 ;
60 [label="gini = 0.38\nsamples = 3\nvalue = [6, 2]\nclass = 1", fillcolor="#e58139aa"] ;
59 -> 60 ;
61 [label="gini = 0.0\nsamples = 1\nvalue = [0, 2]\nclass = 2", fillcolor="#399de5ff"] ;
59 -> 61 ;
62 [label="gini = 0.0\nsamples = 13\nvalue = [0, 19]\nclass = 2", fillcolor="#399de5ff"] ;
58 -> 62 ;
63 [label="gini = 0.0\nsamples = 9\nvalue = [0, 17]\nclass = 2", fillcolor="#399de5ff"] ;
57 -> 63 ;
64 [label="intrvw_typ <= 1.5\ngini = 0.06\nsamples = 23\nvalue = [1, 33]\nclass = 2", fillcolor="#399de5f7"] ;
56 -> 64 ;
65 [label="cl_loc <= 1.5\ngini = 0.22\nsamples = 7\nvalue = [1, 7]\nclass = 2", fillcolor="#399de5db"] ;
64 -> 65 ;
66 [label="day <= 5.5\ngini = 0.28\nsamples = 5\nvalue = [1, 5]\nclass = 2", fillcolor="#399de5cc"] ;
65 -> 66 ;
67 [label="gini = 0.44\nsamples = 2\nvalue = [1, 2]\nclass = 2", fillcolor="#399de57f"] ;
66 -> 67 ;
68 [label="gini = 0.0\nsamples = 3\nvalue = [0, 3]\nclass = 2", fillcolor="#399de5ff"] ;
66 -> 68 ;
69 [label="gini = 0.0\nsamples = 2\nvalue = [0, 2]\nclass = 2", fillcolor="#399de5ff"] ;
65 -> 69 ;
70 [label="gini = 0.0\nsamples = 16\nvalue = [0, 26]\nclass = 2", fillcolor="#399de5ff"] ;
64 -> 70 ;
}