digraph Tree {
node [shape=box, style="filled, rounded", color="black", fontname=helvetica] ;
edge [fontname=helvetica] ;
0 [label="enq_resume <= 1.5\ngini = 0.47\nsamples = 777\nvalue = [778, 455]\nclass = 1", fillcolor="#e581396a"] ;
1 [label="expc_at <= 1.5\ngini = 0.41\nsamples = 593\nvalue = [658, 272]\nclass = 1", fillcolor="#e5813996"] ;
0 -> 1 [labeldistance=2.5, labelangle=45, headlabel="True"] ;
2 [label="cl_nam <= 2.5\ngini = 0.39\nsamples = 559\nvalue = [644, 233]\nclass = 1", fillcolor="#e58139a3"] ;
1 -> 2 ;
3 [label="cl_loc <= 2.5\ngini = 0.42\nsamples = 470\nvalue = [517, 224]\nclass = 1", fillcolor="#e5813991"] ;
2 -> 3 ;
4 [label="day <= 5.5\ngini = 0.43\nsamples = 459\nvalue = [502, 223]\nclass = 1", fillcolor="#e581398e"] ;
3 -> 4 ;
5 [label="cl_loc <= 1.5\ngini = 0.39\nsamples = 201\nvalue = [228, 84]\nclass = 1", fillcolor="#e58139a1"] ;
4 -> 5 ;
6 [label="gini = 0.42\nsamples = 163\nvalue = [180, 75]\nclass = 1", fillcolor="#e5813995"] ;
5 -> 6 ;
7 [label="gini = 0.27\nsamples = 38\nvalue = [48, 9]\nclass = 1", fillcolor="#e58139cf"] ;
5 -> 7 ;
8 [label="cand_nat_loc <= 18.5\ngini = 0.45\nsamples = 258\nvalue = [274, 139]\nclass = 1", fillcolor="#e581397e"] ;
4 -> 8 ;
9 [label="gini = 0.45\nsamples = 254\nvalue = [267, 139]\nclass = 1", fillcolor="#e581397a"] ;
8 -> 9 ;
10 [label="gini = 0.0\nsamples = 4\nvalue = [7, 0]\nclass = 1", fillcolor="#e58139ff"] ;
8 -> 10 ;
11 [label="month <= 4.5\ngini = 0.12\nsamples = 11\nvalue = [15, 1]\nclass = 1", fillcolor="#e58139ee"] ;
3 -> 11 ;
12 [label="cand_nat_loc <= 18.5\ngini = 0.24\nsamples = 6\nvalue = [6, 1]\nclass = 1", fillcolor="#e58139d4"] ;
11 -> 12 ;
13 [label="gini = 0.0\nsamples = 5\nvalue = [6, 0]\nclass = 1", fillcolor="#e58139ff"] ;
12 -> 13 ;
14 [label="gini = 0.0\nsamples = 1\nvalue = [0, 1]\nclass = 2", fillcolor="#399de5ff"] ;
12 -> 14 ;
15 [label="gini = 0.0\nsamples = 5\nvalue = [9, 0]\nclass = 1", fillcolor="#e58139ff"] ;
11 -> 15 ;
16 [label="indus <= 4.5\ngini = 0.12\nsamples = 89\nvalue = [127, 9]\nclass = 1", fillcolor="#e58139ed"] ;
2 -> 16 ;
17 [label="cl_loc <= 1.5\ngini = 0.09\nsamples = 82\nvalue = [117, 6]\nclass = 1", fillcolor="#e58139f2"] ;
16 -> 17 ;
18 [label="gini = 0.0\nsamples = 26\nvalue = [41, 0]\nclass = 1", fillcolor="#e58139ff"] ;
17 -> 18 ;
19 [label="cand_cur_loc <= 2.5\ngini = 0.14\nsamples = 56\nvalue = [76, 6]\nclass = 1", fillcolor="#e58139eb"] ;
17 -> 19 ;
20 [label="gini = 0.21\nsamples = 28\nvalue = [36, 5]\nclass = 1", fillcolor="#e58139dc"] ;
19 -> 20 ;
21 [label="gini = 0.05\nsamples = 28\nvalue = [40, 1]\nclass = 1", fillcolor="#e58139f9"] ;
19 -> 21 ;
22 [label="day <= 3.5\ngini = 0.36\nsamples = 7\nvalue = [10, 3]\nclass = 1", fillcolor="#e58139b3"] ;
16 -> 22 ;
23 [label="gini = 0.0\nsamples = 3\nvalue = [8, 0]\nclass = 1", fillcolor="#e58139ff"] ;
22 -> 23 ;
24 [label="cand_nat_loc <= 2.0\ngini = 0.48\nsamples = 4\nvalue = [2, 3]\nclass = 2", fillcolor="#399de555"] ;
22 -> 24 ;
25 [label="gini = 0.5\nsamples = 3\nvalue = [2, 2]\nclass = 1", fillcolor="#e5813900"] ;
24 -> 25 ;
26 [label="gini = 0.0\nsamples = 1\nvalue = [0, 1]\nclass = 2", fillcolor="#399de5ff"] ;
24 -> 26 ;
27 [label="intrvw_typ <= 2.5\ngini = 0.39\nsamples = 34\nvalue = [14, 39]\nclass = 2", fillcolor="#399de5a3"] ;
1 -> 27 ;
28 [label="month <= 1.5\ngini = 0.35\nsamples = 30\nvalue = [11, 37]\nclass = 2", fillcolor="#399de5b3"] ;
27 -> 28 ;
29 [label="gini = 0.0\nsamples = 1\nvalue = [1, 0]\nclass = 1", fillcolor="#e58139ff"] ;
28 -> 29 ;
30 [label="enq_ven <= 2.0\ngini = 0.33\nsamples = 29\nvalue = [10, 37]\nclass = 2", fillcolor="#399de5ba"] ;
28 -> 30 ;
31 [label="pos <= 1.5\ngini = 0.28\nsamples = 25\nvalue = [7, 34]\nclass = 2", fillcolor="#399de5ca"] ;
30 -> 31 ;
32 [label="gini = 0.42\nsamples = 14\nvalue = [7, 16]\nclass = 2", fillcolor="#399de58f"] ;
31 -> 32 ;
33 [label="gini = 0.0\nsamples = 11\nvalue = [0, 18]\nclass = 2", fillcolor="#399de5ff"] ;
31 -> 33 ;
34 [label="married <= 1.5\ngini = 0.5\nsamples = 4\nvalue = [3, 3]\nclass = 1", fillcolor="#e5813900"] ;
30 -> 34 ;
35 [label="gini = 0.0\nsamples = 2\nvalue = [0, 2]\nclass = 2", fillcolor="#399de5ff"] ;
34 -> 35 ;
36 [label="gini = 0.38\nsamples = 2\nvalue = [3, 1]\nclass = 1", fillcolor="#e58139aa"] ;
34 -> 36 ;
37 [label="month <= 7.5\ngini = 0.48\nsamples = 4\nvalue = [3, 2]\nclass = 1", fillcolor="#e5813955"] ;
27 -> 37 ;
38 [label="month <= 3.0\ngini = 0.38\nsamples = 3\nvalue = [3, 1]\nclass = 1", fillcolor="#e58139aa"] ;
37 -> 38 ;
39 [label="enq_call <= 2.0\ngini = 0.5\nsamples = 2\nvalue = [1, 1]\nclass = 1", fillcolor="#e5813900"] ;
38 -> 39 ;
40 [label="gini = 0.0\nsamples = 1\nvalue = [1, 0]\nclass = 1", fillcolor="#e58139ff"] ;
39 -> 40 ;
41 [label="gini = 0.0\nsamples = 1\nvalue = [0, 1]\nclass = 2", fillcolor="#399de5ff"] ;
39 -> 41 ;
42 [label="gini = 0.0\nsamples = 1\nvalue = [2, 0]\nclass = 1", fillcolor="#e58139ff"] ;
38 -> 42 ;
43 [label="gini = 0.0\nsamples = 1\nvalue = [0, 1]\nclass = 2", fillcolor="#399de5ff"] ;
37 -> 43 ;
44 [label="enq_ven <= 1.5\ngini = 0.48\nsamples = 184\nvalue = [120, 183]\nclass = 2", fillcolor="#399de558"] ;
0 -> 44 [labeldistance=2.5, labelangle=-45, headlabel="False"] ;
45 [label="day <= 5.5\ngini = 0.09\nsamples = 13\nvalue = [1, 19]\nclass = 2", fillcolor="#399de5f2"] ;
44 -> 45 ;
46 [label="gini = 0.0\nsamples = 10\nvalue = [0, 17]\nclass = 2", fillcolor="#399de5ff"] ;
45 -> 46 ;
47 [label="cand_j_loc <= 2.0\ngini = 0.44\nsamples = 3\nvalue = [1, 2]\nclass = 2", fillcolor="#399de57f"] ;
45 -> 47 ;
48 [label="gini = 0.0\nsamples = 1\nvalue = [1, 0]\nclass = 1", fillcolor="#e58139ff"] ;
47 -> 48 ;
49 [label="gini = 0.0\nsamples = 2\nvalue = [0, 2]\nclass = 2", fillcolor="#399de5ff"] ;
47 -> 49 ;
50 [label="enq_perm <= 2.5\ngini = 0.49\nsamples = 171\nvalue = [119, 164]\nclass = 2", fillcolor="#399de546"] ;
44 -> 50 ;
51 [label="pos <= 4.0\ngini = 0.5\nsamples = 127\nvalue = [109, 107]\nclass = 1", fillcolor="#e5813905"] ;
50 -> 51 ;
52 [label="cl_loc <= 3.5\ngini = 0.5\nsamples = 126\nvalue = [109, 105]\nclass = 1", fillcolor="#e5813909"] ;
51 -> 52 ;
53 [label="month <= 1.5\ngini = 0.5\nsamples = 124\nvalue = [106, 105]\nclass = 1", fillcolor="#e5813902"] ;
52 -> 53 ;
54 [label="gini = 0.46\nsamples = 17\nvalue = [19, 11]\nclass = 1", fillcolor="#e581396b"] ;
53 -> 54 ;
55 [label="gini = 0.5\nsamples = 107\nvalue = [87, 94]\nclass = 2", fillcolor="#399de513"] ;
53 -> 55 ;
56 [label="gini = 0.0\nsamples = 2\nvalue = [3, 0]\nclass = 1", fillcolor="#e58139ff"] ;
52 -> 56 ;
57 [label="gini = 0.0\nsamples = 1\nvalue = [0, 2]\nclass = 2", fillcolor="#399de5ff"] ;
51 -> 57 ;
58 [label="day <= 5.5\ngini = 0.25\nsamples = 44\nvalue = [10, 57]\nclass = 2", fillcolor="#399de5d2"] ;
50 -> 58 ;
59 [label="expc_at <= 2.5\ngini = 0.08\nsamples = 31\nvalue = [2, 43]\nclass = 2", fillcolor="#399de5f3"] ;
58 -> 59 ;
60 [label="enq_num <= 2.5\ngini = 0.5\nsamples = 4\nvalue = [2, 2]\nclass = 1", fillcolor="#e5813900"] ;
59 -> 60 ;
61 [label="gini = 0.44\nsamples = 3\nvalue = [1, 2]\nclass = 2", fillcolor="#399de57f"] ;
60 -> 61 ;
62 [label="gini = 0.0\nsamples = 1\nvalue = [1, 0]\nclass = 1", fillcolor="#e58139ff"] ;
60 -> 62 ;
63 [label="gini = 0.0\nsamples = 27\nvalue = [0, 41]\nclass = 2", fillcolor="#399de5ff"] ;
59 -> 63 ;
64 [label="enq_call <= 2.5\ngini = 0.46\nsamples = 13\nvalue = [8, 14]\nclass = 2", fillcolor="#399de56d"] ;
58 -> 64 ;
65 [label="expc_at <= 2.5\ngini = 0.24\nsamples = 9\nvalue = [2, 12]\nclass = 2", fillcolor="#399de5d4"] ;
64 -> 65 ;
66 [label="gini = 0.44\nsamples = 3\nvalue = [2, 1]\nclass = 1", fillcolor="#e581397f"] ;
65 -> 66 ;
67 [label="gini = 0.0\nsamples = 6\nvalue = [0, 11]\nclass = 2", fillcolor="#399de5ff"] ;
65 -> 67 ;
68 [label="married <= 1.5\ngini = 0.38\nsamples = 4\nvalue = [6, 2]\nclass = 1", fillcolor="#e58139aa"] ;
64 -> 68 ;
69 [label="gini = 0.0\nsamples = 2\nvalue = [6, 0]\nclass = 1", fillcolor="#e58139ff"] ;
68 -> 69 ;
70 [label="gini = 0.0\nsamples = 2\nvalue = [0, 2]\nclass = 2", fillcolor="#399de5ff"] ;
68 -> 70 ;
}