digraph Tree {
node [shape=box, style="filled, rounded", color="black", fontname=helvetica] ;
edge [fontname=helvetica] ;
0 [label="enq_call_letter_1 <= 0.5\ngini = 0.47\nsamples = 777\nvalue = [775, 458]\nclass = 1", fillcolor="#e5813968"] ;
1 [label="enq_num_1 <= 0.5\ngini = 0.47\nsamples = 194\nvalue = [114, 195]\nclass = 2", fillcolor="#399de56a"] ;
0 -> 1 [labeldistance=2.5, labelangle=45, headlabel="True"] ;
2 [label="enq_resume_1 <= 0.5\ngini = 0.48\nsamples = 177\nvalue = [111, 174]\nclass = 2", fillcolor="#399de55c"] ;
1 -> 2 ;
3 [label="married_1 <= 0.5\ngini = 0.48\nsamples = 173\nvalue = [111, 164]\nclass = 2", fillcolor="#399de552"] ;
2 -> 3 ;
4 [label="intrvw_typ_1 <= 0.5\ngini = 0.44\nsamples = 66\nvalue = [33, 70]\nclass = 2", fillcolor="#399de587"] ;
3 -> 4 ;
5 [label="intrvw_typ_2 <= 0.5\ngini = 0.35\nsamples = 36\nvalue = [12, 42]\nclass = 2", fillcolor="#399de5b6"] ;
4 -> 5 ;
6 [label="gini = 0.43\nsamples = 13\nvalue = [5, 11]\nclass = 2", fillcolor="#399de58b"] ;
5 -> 6 ;
7 [label="gini = 0.3\nsamples = 23\nvalue = [7, 31]\nclass = 2", fillcolor="#399de5c5"] ;
5 -> 7 ;
8 [label="cl_loc_1 <= 0.5\ngini = 0.49\nsamples = 30\nvalue = [21, 28]\nclass = 2", fillcolor="#399de540"] ;
4 -> 8 ;
9 [label="gini = 0.49\nsamples = 10\nvalue = [8, 6]\nclass = 1", fillcolor="#e5813940"] ;
8 -> 9 ;
10 [label="gini = 0.47\nsamples = 20\nvalue = [13, 22]\nclass = 2", fillcolor="#399de568"] ;
8 -> 10 ;
11 [label="expc_at <= 2.5\ngini = 0.5\nsamples = 107\nvalue = [78, 94]\nclass = 2", fillcolor="#399de52b"] ;
3 -> 11 ;
12 [label="intrvw_typ_1 <= 0.5\ngini = 0.5\nsamples = 88\nvalue = [78, 66]\nclass = 1", fillcolor="#e5813927"] ;
11 -> 12 ;
13 [label="gini = 0.48\nsamples = 38\nvalue = [36, 24]\nclass = 1", fillcolor="#e5813955"] ;
12 -> 13 ;
14 [label="gini = 0.5\nsamples = 50\nvalue = [42, 42]\nclass = 1", fillcolor="#e5813900"] ;
12 -> 14 ;
15 [label="gini = 0.0\nsamples = 19\nvalue = [0, 28]\nclass = 2", fillcolor="#399de5ff"] ;
11 -> 15 ;
16 [label="gini = 0.0\nsamples = 4\nvalue = [0, 10]\nclass = 2", fillcolor="#399de5ff"] ;
2 -> 16 ;
17 [label="expc_at <= 2.5\ngini = 0.22\nsamples = 17\nvalue = [3, 21]\nclass = 2", fillcolor="#399de5db"] ;
1 -> 17 ;
18 [label="intrvw_typ_2 <= 0.5\ngini = 0.44\nsamples = 4\nvalue = [2, 4]\nclass = 2", fillcolor="#399de57f"] ;
17 -> 18 ;
19 [label="gini = 0.0\nsamples = 2\nvalue = [2, 0]\nclass = 1", fillcolor="#e58139ff"] ;
18 -> 19 ;
20 [label="gini = 0.0\nsamples = 2\nvalue = [0, 4]\nclass = 2", fillcolor="#399de5ff"] ;
18 -> 20 ;
21 [label="cand_nat_loc_1 <= 0.5\ngini = 0.1\nsamples = 13\nvalue = [1, 17]\nclass = 2", fillcolor="#399de5f0"] ;
17 -> 21 ;
22 [label="gini = 0.0\nsamples = 6\nvalue = [0, 9]\nclass = 2", fillcolor="#399de5ff"] ;
21 -> 22 ;
23 [label="enq_perm_1 <= 0.5\ngini = 0.2\nsamples = 7\nvalue = [1, 8]\nclass = 2", fillcolor="#399de5df"] ;
21 -> 23 ;
24 [label="gini = 0.0\nsamples = 6\nvalue = [0, 8]\nclass = 2", fillcolor="#399de5ff"] ;
23 -> 24 ;
25 [label="gini = 0.0\nsamples = 1\nvalue = [1, 0]\nclass = 1", fillcolor="#e58139ff"] ;
23 -> 25 ;
26 [label="cand_cur_loc_1 <= 0.5\ngini = 0.41\nsamples = 583\nvalue = [661, 263]\nclass = 1", fillcolor="#e581399a"] ;
0 -> 26 [labeldistance=2.5, labelangle=-45, headlabel="False"] ;
27 [label="enq_perm_1 <= 0.5\ngini = 0.34\nsamples = 179\nvalue = [219, 62]\nclass = 1", fillcolor="#e58139b7"] ;
26 -> 27 ;
28 [label="intrvw_typ_2 <= 0.5\ngini = 0.36\nsamples = 7\nvalue = [3, 10]\nclass = 2", fillcolor="#399de5b3"] ;
27 -> 28 ;
29 [label="enq_num_1 <= 0.5\ngini = 0.49\nsamples = 3\nvalue = [3, 4]\nclass = 2", fillcolor="#399de540"] ;
28 -> 29 ;
30 [label="gini = 0.0\nsamples = 2\nvalue = [0, 4]\nclass = 2", fillcolor="#399de5ff"] ;
29 -> 30 ;
31 [label="gini = 0.0\nsamples = 1\nvalue = [3, 0]\nclass = 1", fillcolor="#e58139ff"] ;
29 -> 31 ;
32 [label="gini = 0.0\nsamples = 4\nvalue = [0, 6]\nclass = 2", fillcolor="#399de5ff"] ;
28 -> 32 ;
33 [label="expc_at <= 1.5\ngini = 0.31\nsamples = 172\nvalue = [216, 52]\nclass = 1", fillcolor="#e58139c2"] ;
27 -> 33 ;
34 [label="intrvw_typ_2 <= 0.5\ngini = 0.3\nsamples = 166\nvalue = [213, 48]\nclass = 1", fillcolor="#e58139c6"] ;
33 -> 34 ;
35 [label="cand_nat_loc_1 <= 0.5\ngini = 0.38\nsamples = 95\nvalue = [116, 39]\nclass = 1", fillcolor="#e58139a9"] ;
34 -> 35 ;
36 [label="gini = 0.39\nsamples = 91\nvalue = [105, 39]\nclass = 1", fillcolor="#e58139a0"] ;
35 -> 36 ;
37 [label="gini = 0.0\nsamples = 4\nvalue = [11, 0]\nclass = 1", fillcolor="#e58139ff"] ;
35 -> 37 ;
38 [label="day_6 <= 0.5\ngini = 0.16\nsamples = 71\nvalue = [97, 9]\nclass = 1", fillcolor="#e58139e7"] ;
34 -> 38 ;
39 [label="gini = 0.11\nsamples = 58\nvalue = [80, 5]\nclass = 1", fillcolor="#e58139ef"] ;
38 -> 39 ;
40 [label="gini = 0.31\nsamples = 13\nvalue = [17, 4]\nclass = 1", fillcolor="#e58139c3"] ;
38 -> 40 ;
41 [label="intrvw_typ_2 <= 0.5\ngini = 0.49\nsamples = 6\nvalue = [3, 4]\nclass = 2", fillcolor="#399de540"] ;
33 -> 41 ;
42 [label="gini = 0.0\nsamples = 3\nvalue = [0, 3]\nclass = 2", fillcolor="#399de5ff"] ;
41 -> 42 ;
43 [label="day_6 <= 0.5\ngini = 0.38\nsamples = 3\nvalue = [3, 1]\nclass = 1", fillcolor="#e58139aa"] ;
41 -> 43 ;
44 [label="gini = 0.44\nsamples = 2\nvalue = [2, 1]\nclass = 1", fillcolor="#e581397f"] ;
43 -> 44 ;
45 [label="gini = 0.0\nsamples = 1\nvalue = [1, 0]\nclass = 1", fillcolor="#e58139ff"] ;
43 -> 45 ;
46 [label="married_1 <= 0.5\ngini = 0.43\nsamples = 404\nvalue = [442, 201]\nclass = 1", fillcolor="#e581398b"] ;
26 -> 46 ;
47 [label="intrvw_ven_1 <= 0.5\ngini = 0.39\nsamples = 179\nvalue = [209, 77]\nclass = 1", fillcolor="#e58139a1"] ;
46 -> 47 ;
48 [label="gini = 0.0\nsamples = 1\nvalue = [0, 2]\nclass = 2", fillcolor="#399de5ff"] ;
47 -> 48 ;
49 [label="enq_resume_1 <= 0.5\ngini = 0.39\nsamples = 178\nvalue = [209, 75]\nclass = 1", fillcolor="#e58139a3"] ;
47 -> 49 ;
50 [label="gini = 0.0\nsamples = 1\nvalue = [0, 1]\nclass = 2", fillcolor="#399de5ff"] ;
49 -> 50 ;
51 [label="expc_at <= 2.0\ngini = 0.39\nsamples = 177\nvalue = [209, 74]\nclass = 1", fillcolor="#e58139a5"] ;
49 -> 51 ;
52 [label="gini = 0.36\nsamples = 172\nvalue = [209, 63]\nclass = 1", fillcolor="#e58139b2"] ;
51 -> 52 ;
53 [label="gini = 0.0\nsamples = 5\nvalue = [0, 11]\nclass = 2", fillcolor="#399de5ff"] ;
51 -> 53 ;
54 [label="intrvw_ven_1 <= 0.5\ngini = 0.45\nsamples = 225\nvalue = [233, 124]\nclass = 1", fillcolor="#e5813977"] ;
46 -> 54 ;
55 [label="intrvw_typ_1 <= 0.5\ngini = 0.32\nsamples = 2\nvalue = [4, 1]\nclass = 1", fillcolor="#e58139bf"] ;
54 -> 55 ;
56 [label="gini = 0.0\nsamples = 1\nvalue = [4, 0]\nclass = 1", fillcolor="#e58139ff"] ;
55 -> 56 ;
57 [label="gini = 0.0\nsamples = 1\nvalue = [0, 1]\nclass = 2", fillcolor="#399de5ff"] ;
55 -> 57 ;
58 [label="enq_perm_1 <= 0.5\ngini = 0.45\nsamples = 223\nvalue = [229, 123]\nclass = 1", fillcolor="#e5813976"] ;
54 -> 58 ;
59 [label="cand_nat_loc_1 <= 0.5\ngini = 0.3\nsamples = 6\nvalue = [2, 9]\nclass = 2", fillcolor="#399de5c6"] ;
58 -> 59 ;
60 [label="gini = 0.5\nsamples = 2\nvalue = [2, 2]\nclass = 1", fillcolor="#e5813900"] ;
59 -> 60 ;
61 [label="gini = 0.0\nsamples = 4\nvalue = [0, 7]\nclass = 2", fillcolor="#399de5ff"] ;
59 -> 61 ;
62 [label="expc_at <= 1.5\ngini = 0.45\nsamples = 217\nvalue = [227, 114]\nclass = 1", fillcolor="#e581397f"] ;
58 -> 62 ;
63 [label="gini = 0.44\nsamples = 212\nvalue = [223, 110]\nclass = 1", fillcolor="#e5813981"] ;
62 -> 63 ;
64 [label="gini = 0.5\nsamples = 5\nvalue = [4, 4]\nclass = 1", fillcolor="#e5813900"] ;
62 -> 64 ;
}